{"HID":20,"OBS":34,"ACT":8,"net":{"W1":[[-0.02819583661137591,0.037325918827753476,-0.19014270033216418,-0.37091108224969005,0.04698299207030884,0.24019703184384422,0.26315534012759545,0.0885809431383536,-0.21972718946754097,0.2897443489933933,-0.06820353562298104,-0.24172564787913173,0.014707431239021093,0.14527715509638858,0.23903729350389713,-0.11302813537654384,0.03315551461906948,0.035605624270635204,-0.13383403736875626,-0.04485147570683368,0.00620355296132867,0.05479717021177639,-0.48312536740666095,0.304989791590128,0.17486438304014787,-0.1101737976817684,0.0012409834746998974,0.0518271931600825,0.3041817388878395,0.0756314713994745,-0.3184627625542675,-0.09288793598844194,-0.14731949345899742,-0.27669240803191275],[0.0730046002972932,-0.18873806722517453,0.11413942126939618,-0.17127586392905675,-0.12735986443940972,0.270953643113448,-0.2808624689666438,-0.059268518699981156,0.6056300154783878,0.08153475375850715,-0.2154624987998239,0.10136545394435403,0.3655286474957982,0.2272884929852374,-0.14002884150576492,0.0038483386251496133,-0.20852669095278106,-0.008439108995251136,0.1164131745671398,-0.07263601370378021,0.23142327965305365,0.17911231646759707,-0.02162054236340977,0.1983030561255982,0.17264142166183857,0.41259956372422635,-0.0389498077374285,-0.13384526761238918,-0.07514756541106052,-0.04637581701912985,0.23052953028976175,-0.2565202835165778,-0.27971306035791177,0.008776901375373142],[-0.23932657711900612,0.4208869732748036,0.10476023748250508,0.37649329947346605,0.08055885171139981,0.4453148722640498,-0.1841164679332697,-0.2593306307339151,-0.21299571831554792,0.04007147904331034,-0.21863161215845636,0.004869869584187745,0.03753547933829517,-0.26412665093034066,-0.20400049461000092,-0.029471861169871095,-0.022417137463988327,-0.18148598784299907,-0.4578603910945091,0.1135883751780334,-0.02348843742404908,-0.293304882569281,0.11250083879702172,0.08574901854374546,-0.059378446097268486,-0.002704989896591684,0.1911952961200316,0.07401420926653667,-0.04171143450269948,0.10526580482681663,-0.13466613939326072,-0.04015799747807504,-0.3404285200569374,0.0893756332477734],[-0.023042195114028344,0.042653206392023954,-0.11528268701573782,0.20106836553128962,0.02693300915127193,0.04140324373901907,-0.13353716451563508,0.1105099173588995,0.01733911711383901,0.03775349715087806,-0.19314626776439764,-0.06730520562124517,0.2892419740445351,0.1710745646425072,0.08442347621906289,0.20534227398453264,0.06120381087786948,-0.22274147032782263,-0.03613332101737708,-0.08739921375014723,-0.36334995367005857,0.1741255637494506,-0.25656800411496117,-0.015676224867094895,-0.04648100183958439,-0.13104309085042545,-0.08995367817259312,0.13184694985093784,-0.1241464267300203,-0.054611416764641374,0.11050620613168285,-0.28908291209616854,-0.08208505767889024,0.3185489320692411],[0.11561523970775625,0.01607850370239153,0.023698525231347394,-0.12459441086153547,0.09548916358029162,-0.11130128315291024,0.032176343448124506,0.3794154875473978,0.1579041961688468,-0.041654829945036054,-0.10511574207042164,0.016609137952142538,0.38459547840896663,-0.21458835337039053,0.23665568869168072,0.07834315740750987,-0.07275249883238402,0.09095410893178361,0.24911924331824326,0.05332693163801173,0.02136017930861278,-0.13119026324258234,0.0331524409256418,0.10340105236652605,-0.0971651055829914,0.032873668906606236,-0.014248080018339415,0.18266703685172436,-0.061604946776428735,0.041752288190392936,-0.061859454567688495,-0.017895392077662456,0.11990227482917067,-0.023613858277713697],[0.12608864172007522,-0.497159212402132,-0.056553474947578834,-0.1289630763251019,0.12785557496592836,-0.2563851937086858,-0.024881076434940624,0.13368989398553677,0.15588024333329992,-0.01401496640829078,-0.25978259798580966,-0.03329196886990197,-0.05982666366084785,0.42018267840618756,0.020364061194610573,-0.12338879525259824,-0.0377648735549245,-0.27634559808226344,-0.39465489010008353,-0.05422159759152555,-0.1540441703120518,0.4252158799354515,0.021673432624995596,-0.08749586664511719,-0.12456559508447873,0.07056776143349695,-0.06250684539602863,0.15996975211187994,-0.021415451901027092,0.2673486762546094,-0.004312021816722543,0.2621549132273567,-0.008859820648632836,-0.12518283937592642],[-0.021005163170740516,0.03209290791831278,0.1281392527097509,0.12556306112391757,-0.051657003098506966,0.10699810552555357,0.09415495871876603,0.3117452361761972,-0.09231534629749394,-0.13041395049593746,0.05540459677225841,-0.06158319428268376,0.011449139072339319,-0.16340315082768345,-0.24507064750936589,0.320576992156233,0.035298271977552025,0.06912513018189632,-0.22718393095452719,0.12150835516085348,-0.10081569858129016,0.14811152933535565,0.03285160046848138,-0.004778988064557673,0.09749284236795422,0.1889033478384715,-0.1168188948475444,-0.06468402163660623,-0.2416458926958741,0.060663393886204266,0.1833395610482679,0.15815989725405002,0.28766047239016745,0.0973960419985391],[0.25730462321157005,0.02031097924507282,-0.07939299809110134,-0.3245065906189191,0.2805778529534943,-0.002188004687452914,0.06786862388926279,-0.04680934328220572,-0.0795521090060513,0.13828356578483886,-0.07635381025807429,0.09614701652898179,0.05860749631839448,0.058512730461132416,-0.0590811784405545,0.023926801002111125,0.14019250699787622,0.05718742890153455,-0.34269476574538454,-0.014927699420605615,-0.08393386342166066,0.09969239371594343,0.1308374663696268,-0.1457822090719168,-0.0426248270474634,-0.08052529567839535,0.04631226857317323,-0.08985218673371272,-0.20638359692054084,0.026172862206040426,-0.07465972007624325,-0.1970146134298261,0.06904969626480452,0.10322732455865877],[-0.06042903196716541,0.043604626841963486,-0.10484360945427777,0.020060936102458852,-0.044876924733682454,0.012593731762915466,-0.2334068260546142,-0.04917190242256238,0.24821369779009408,-0.01901574470765037,0.055343487902192436,0.11570059527846771,0.18996848130215663,-0.18696574126034388,0.2742076801306314,0.1430275483307593,0.10031999995501635,-0.45181146213260015,0.38840847619002633,0.2326591141733865,-0.032262293694584616,0.15271482161265565,0.03949854838069592,-0.11222406774139193,-0.15766415819555796,0.08909612038685173,0.015897343600494544,-0.03858903166498832,-0.006875750446012375,-0.05498230427505029,0.1404150873871075,0.18207634175523085,0.16290962133945816,-0.047113738142260685],[0.07328551106133864,-0.04863715127826994,0.08609945251583316,-0.25443703006087853,-0.03327033582410034,0.04892808785871707,-0.1210937978475443,0.11231265627724255,0.1028252767322443,-0.046972730619826396,-0.07730092037950456,0.21915225559183663,0.2095272719794313,0.04610723577775732,-0.14885677375536813,-0.07024192662148143,0.12854305492628681,0.21867044744577474,0.2770758951381828,-0.02836298616696504,-0.36012843232989766,0.16773405436223407,-0.04268162733637091,-0.03168817870173891,0.04557963513799022,0.01967245062873419,-0.14435919737688466,0.346998050390561,-0.08954376461409938,-0.021394028302798872,-0.13974848091136544,-0.019623480033306114,-0.18288057382052886,0.05140266385265118],[0.16807134593817022,-0.10541097097740722,0.22270482015477663,0.10424049076521764,0.20794473494741114,-0.21161896570933142,-0.08362425614270623,0.16297696665742356,0.1751709999817628,-0.04650067201573021,0.3658266918889602,-0.1275890251284702,-0.06935414840197687,0.07027530226903012,0.21831111182247748,0.41225008900448723,0.059067113899914904,-0.06621584832064387,-0.022916450290237006,-0.06378286036990166,0.11989670724420827,-0.09987611528227353,0.1561876305829255,0.11816872920415085,0.13732855985761147,-0.05908649654633662,-0.034870627820256156,0.055557154487626,-0.1157135242655781,-0.14547795779929856,0.11785977862347972,-0.36436648505212976,-0.4096556173693025,-0.08486662989456166],[-0.3135995443264072,0.007056163959964651,-0.11010444136048654,-0.5608912442604843,-0.1850532165603451,-0.09489036207812754,0.06554048734700955,0.059008933194216476,-0.19900822259626993,0.30163362396553717,-0.27908919148020017,0.1510957071571845,0.040655339259186025,-0.1032582690497056,0.21915090054961514,-0.01949507125291882,0.01743870972916251,0.21906804905451488,-0.14438956294942867,0.2684086697439511,0.1671930311739283,0.06856007431385072,-0.025228989033872204,0.06143297864719877,-0.26831019833377356,-0.1631929341716985,0.14056493925836985,-0.06384122231632446,0.035463320126156,-0.03337060283182773,0.18625878368637955,0.047332541211681976,0.27891523974500426,0.047024764276982725],[-0.18986949734056752,-0.043406286306508314,-0.2637717857066824,0.17782549540206075,0.2184257802726017,-0.24968140102462832,-0.3471196761422347,0.03051656190395753,-0.05979431763552419,0.2659114659670931,-0.3077579479499585,-0.0030527431583101893,-0.29694615272098185,-0.05360695240630069,-0.27845099993479605,-0.32681306046535885,-0.062718567041814,-0.037674869182889204,0.2210053149346914,-0.029675964649188986,0.22345447790250164,0.11960448137700043,-0.05188701207853095,0.06192546301838234,0.2388250677427399,-0.1042606185822389,-0.08943881176341222,0.026948894281754433,-0.03471313483849151,-0.02788822576037947,0.26419955123019223,-0.1650461891668514,0.1428812025422647,-0.11662784485935108],[-0.2091824871905443,0.35885100269460674,-0.0711389965868633,-0.35836487603388223,0.09297583166644084,-0.042615188448736706,-0.09393942503626758,-0.08330460430863049,-0.0800442263094673,-0.14811616360489124,0.05290343575298934,-0.2225810187932649,-0.1034818059780562,-0.18650626133974585,0.08900686274748183,-0.059838691497766515,0.03274835134431188,0.060821327249475865,0.11107538198267027,0.035007645791782414,0.15913571957858433,0.26711497172240256,0.08934955908277196,-0.037875865543587565,-0.31735143995082987,-0.11268711554780428,-0.18317192290256568,0.18733137048939286,-0.31872109715589864,0.05454804443250028,-0.1371521210936094,0.105241833943227,0.22078347817664032,-0.04817066704237965],[0.00397230255935199,0.3007580892602671,-0.2553137028628693,-0.2558827246368766,-0.2967754652746874,0.10935870934827265,0.025219256791398168,-0.3016856601137523,0.14170947272347656,-0.15740619682611515,0.150126537507537,-0.07281736127252073,-0.1409423119495367,-0.18884792115876683,-0.0020655746571198253,0.00320297264822709,0.038022358664350636,0.15106562470180415,-0.4544811479026974,-0.07850715039904868,0.15793971592987266,0.0017312785657385159,-0.21394988834782508,-0.005015518225395964,0.23530008025570082,0.1017353384235372,0.21728971734134406,0.23557524150917153,0.0025956888133496572,-0.08288778926857467,0.16138905372406884,0.07523629636453391,-0.05749392947227095,0.28557847944073184],[-0.12723199648648867,-0.07472209291509654,0.5194249156512228,0.21234080119959936,0.15523220166274512,0.17692207679189287,0.2546116041191883,0.025272492378674273,-0.13117305434512566,0.08139839253889154,-0.024474915518525688,-0.0744964113894453,-0.14253100797681334,0.03691554776646277,0.08252095506830333,0.1944458773707547,-0.11945505776140725,-0.19610222855802972,-0.03784605039166827,0.04176706774255467,0.12854257616253356,0.36104441651875413,0.10630216025357997,0.039653336885538626,-0.05452921399312429,0.008854590612379476,-0.059307389263014834,-0.03712796048553745,-0.0346264483415009,-0.1350672515674428,0.09796464682036037,0.15604416437586363,0.18651628739121,0.061483347063925775],[-0.057564005599480064,0.06589281470546009,-0.05737802363349144,0.04078709750449827,-0.13785169153968058,-0.03211495514820504,0.1313462803699303,0.0689650076403064,-0.02688100710316682,-0.12342989732779402,0.1061081138415691,-0.08016009002473919,-0.051418917655418575,-0.08118051176685011,-0.3311614592087755,-0.10338876086107429,0.09940100576071606,0.11443086096429597,-0.1355452456716028,-0.001326933199251355,0.13293693611859514,0.008285490084089589,-0.20827566676290485,-0.0075350461077914686,0.007910255915903636,0.12176834463583722,0.09997819870169822,-0.028384321452831124,-0.2442288322427248,0.5142654817853232,0.1971274089218859,-0.3712322108718832,0.2804052296124848,0.202990026464227],[-0.010363800160028093,-0.0536435590895554,0.157765817125961,-0.0753486261221246,-0.07592957733779411,0.2342202400211095,-0.16035978239634538,0.16963064876256134,-0.18901097268550662,-0.08821412586787927,-0.15679494302832403,0.000460677049267041,-0.013982801481728653,0.08473961025909278,-0.08478947203710686,-0.005587719856982799,-0.3783123262729057,0.23326477823216027,-0.140280239673829,0.04823446117007734,-0.05484277239780128,0.405027903829054,0.015855052159074855,0.3007006530178629,0.11811761668314177,-0.37306456307565844,0.04419948991504739,0.35026982485828073,-0.07340322224349873,-0.07198864719205168,-0.09010056359478048,0.05429336691215928,-0.0012888956608906844,0.25665509939118186],[0.20595852498489287,-0.17946476693816524,0.20936249916561506,-0.06124348508125614,-0.05434781006231562,-0.11872406493734057,-0.09207206257366235,0.013678077106473396,-0.047519500028111214,-0.08911603307645054,0.045774918269453305,-0.0418450809791765,0.07995931929777968,-0.022091666950821473,0.010928333767633294,0.3318007431891523,-0.3003626182422048,0.20196004317702723,0.3841068282990857,0.10639908738643175,0.07473757258368303,-0.011454001803695029,-0.14686414145957452,-0.2871748693536834,-0.06006163525108036,-0.18835063149244982,-0.001088906502645984,0.05275958286436094,0.025172390933170342,0.005461328774898721,-0.03769779703230153,-0.19345079933487203,-0.06253095471379767,-0.20685915339384958],[0.030121121818920626,-0.3337523364615108,-0.14817086781598066,-0.13019130527889247,0.1328519438520642,-0.08380763709852651,0.10823360307277084,0.1345368301619708,-0.07873327210737403,-0.10129066281809232,-0.1808215182381241,-0.19918021104627717,-0.2021255671638465,0.130059759475478,-0.06731456465414878,-0.16908015448035985,-0.17640710591482703,-0.06712985910737361,0.13911433816275684,0.010287667773715337,-0.18598760847889656,0.09943658575481303,-0.08798595474636953,0.2687543713358057,0.19342871801525602,-0.24438577591727734,0.08092488955208768,0.21005093560446503,0.14331352938180428,-0.25619195785977594,-0.03132206540358609,-0.18092514897158757,0.08580279255954995,0.24507581263566589]],"b1":[-0.00006381420557124369,-0.0003982597542674686,-0.00008652862710661198,0.000516609856653087,-0.00019055152567130058,-0.00038382006207709964,-0.00018943463041362353,0.00012237638177741951,-0.0005156731391574971,0.0002695193733486335,-0.00007628836617527357,0.00016022153548192513,0.00012659536634440508,-0.00019560982017539924,-0.00006874646772206859,0.00016532852770503436,-0.00017810145118617082,-0.00024284917386887688,-0.00023460586509519232,-0.00023245186345212724],"W2":[[-0.3102113443068193,-0.2643160526748609,-0.06777249765721632,-0.045048525320862,-0.3179372018136217,-0.33987473123563544,-0.01842292972716969,-0.12610281232279394,0.11453721681985123,-0.2831258649274924,-0.10246675795193631,-0.09615180886556134,-0.23272022938393574,-0.23033327859908181,-0.3058775966594834,-0.13209196258883302,-0.021697455203472982,0.07338944304061071,0.09614940577428369,0.02498521625492673],[0.10427810335224386,0.2594211720463976,0.07159373909376518,-0.37259699705981253,0.16523945164465095,0.14860879427854787,0.2522049279558661,-0.09182272440121816,0.33701157193260817,-0.18840211578755875,0.3008889404097123,-0.07872898618687875,-0.45572813947505986,0.1482280945411799,-0.00005373509679439116,-0.15604198068270422,0.16951729100511975,0.25466538514361603,0.21755357471846096,0.2767464025836548],[-0.021717535206264443,-0.18106403605567187,-0.19898557714571866,-0.21813106561280557,0.013569211052263249,-0.280390420909143,-0.05121852316287432,0.1791801690615428,-0.1774089641468183,-0.48547917346565383,0.06549671251242613,0.027649054172236287,-0.21084149627874973,-0.21763884849475723,0.2729620383691443,0.08449452398767025,-0.11605638656137038,-0.21829163430145446,0.1777110610042834,0.1962765703042468],[0.04579489567810979,-0.3089774909679826,0.3073678041189519,-0.2898122410386301,-0.11159756084198254,-0.05187265516097789,0.15546866745789154,-0.5496208161856093,-0.04556591413460204,-0.20072982153962912,0.16377575215631174,-0.10107628336336018,0.17053395031595006,-0.013186450910716149,0.34820318238877357,0.12079464829701221,0.166148602339632,0.14499324303251263,0.12970332726251355,0.14271662891286765],[-0.0021995141602235164,-0.45085086916379424,0.09695047460303087,0.42753958026322714,-0.007410765982735728,-0.40072379968547134,0.018629557911035804,-0.1360693222153991,-0.3625812235301869,0.21951099425996592,0.04141881182457766,-0.04685407414714174,-0.23772354708910295,-0.12168774737915951,-0.16791166624852458,-0.356533098010439,0.1716098513982887,0.15386301735691754,0.007434574407736307,-0.2632054169935254],[0.1395106909610968,-0.041937954274235,-0.17751574472633935,-0.00397934445879894,-0.20392209421504498,-0.3256203985370211,0.06232592261442556,0.12226483130735454,-0.10015082951224255,0.04086346670498448,0.40659081725040147,0.347239744607385,-0.3495646131243321,-0.0005948288981918607,-0.23032949218352572,0.29162939874510435,-0.30086500381389925,-0.07362122208733687,-0.41370831374005534,0.12800591789929688],[-0.413064224418832,0.06992632846068537,-0.10673796930504538,-0.15606980731713307,0.2544349363401135,-0.2342493979048238,0.06343641786373279,-0.07591250434676536,-0.1928029896809347,0.008725890367149752,-0.0845912191825767,-0.16006773486634912,-0.10892443445267556,-0.14788147081996128,-0.1267304473201514,-0.5575716618253226,-0.018616222140322658,-0.1317806459025904,-0.24905695368161207,-0.10333479918983254],[-0.4122119240673273,0.24125043870959045,0.07025825992094101,0.008382461503635072,-0.16127592383101153,0.08311998403915,0.0496227686491117,-0.0720571942853294,0.27596740426888616,0.3196562481941076,0.04032516217015465,-0.1396962866609318,0.12302798126011597,-0.03744126655135439,-0.40307199969186297,0.111371631771568,-0.022099583728576667,-0.1213167714378674,0.23397395427976939,-0.5165466837666605]],"b2":[-0.0001347842179229802,-0.0009669300054962946,0.00024649340724811476,0.000019173163792867867,0.00048242796933848747,0.00032064732756197914,-0.00009456354335132624,0.0001275358988291501]},"avg":107.94166666666668}