{"HID":24,"OBS":34,"ACT":8,"W1":[[0.004181681280140136,0.24750949785230586,-0.10872695595898492,-0.22975034913759837,-0.2580215479437338,0.11453781755821063,-0.12749932042198991,0.23371857442667504,0.021831056844769207,-0.10979226576631429,0.12017052519103946,0.18997078600555475,0.0057572214186307185,-0.10909307220827023,-0.09059066123090104,0.09995574136676925,-0.18514305749856236,0.15044802064349988,-0.36826171656786316,-0.24233810306767384,-0.1969899664546279,0.12060733099559914,0.08031743113974402,0.10612892167238952,-0.15129338037653203,-0.10979678882607503,-0.1378292916963716,-0.07733461993705376,0.04545469681055363,0.04466099421281428,0.18707135620162327,-0.13844415208737973,0.14491459884682195,-0.03059765419863794],[-0.11936423916230454,0.20945202552085276,0.02547472107395666,0.1431536543465032,0.3794341102525804,-0.13541534755163728,-0.1667526383481184,0.1856582857514419,-0.010714753202601793,-0.09948156587334178,-0.047086931211000715,-0.2289185515581256,-0.16412573057664978,-0.2452570512048427,-0.25857047647282266,0.07015326425982348,0.023170983228731172,0.10880891252313583,0.24064712106845917,-0.06723345798597041,-0.2115731080500451,-0.025610134870079564,-0.10492576857336318,-0.10147119270023276,0.3880920101908801,0.15947643321808572,0.0830862678830921,0.09517438481146805,0.3044061969958319,-0.19019447020039437,0.1274966951061266,0.2055016359695063,-0.18949608578412613,-0.07285961246741549],[0.034608684015848566,-0.09928088051330186,-0.07487851217226367,-0.15395449433707645,-0.09723108031285088,-0.09292378834613277,0.10387466542471234,0.12493986728937438,-0.12046930710313715,-0.014067546306721001,-0.054794651139540025,0.07758514868981496,-0.39605323863138486,0.12322155685198942,0.1758880392686061,-0.06624386739024585,-0.12774519307577903,-0.032034579536500137,0.35791291307853285,-0.26391429316549914,0.02332190352117681,-0.002702094851345878,-0.24644663091114505,0.02219149291502867,-0.29104340677527163,-0.02540776077478677,0.10791933726062031,-0.1540453633267208,0.2000541917817382,0.16137308086656368,-0.44704381742012433,-0.18851921821507647,0.06608734518305966,0.3539587348693593],[0.009767859734683918,-0.06840382457840798,0.04336715644607469,0.03495050902087221,0.05004070346056218,-0.17433828823682937,0.12476639160305418,-0.018609983162391437,0.05289614422164405,-0.19606286406248957,-0.12088071947934798,-0.2511277578656323,0.032682577461007056,0.17772723534876791,0.04694409418727536,0.0023794183356837164,0.17556700405924164,0.16529678713717816,0.2144098665098358,-0.3260823440054981,-0.0947398283183391,0.0896415171416938,0.13989818702391257,0.15736620548540275,-0.2569220426874045,0.0595144092823056,0.11542444227297818,-0.2329595580810129,-0.015789886596257102,0.33881248800037045,-0.17297123540007592,0.31110335957352364,-0.05549619941416256,0.03572392871717896],[0.03016965017447524,0.024914748695015344,0.372735951597495,-0.11621873099033839,0.020278105219451597,-0.04889713328315218,-0.010076693803969888,0.0044602706455755745,-0.42200717565040946,-0.2823313161433109,0.06324385029394775,0.026204898573684025,0.01842548063953093,-0.10864059167736914,0.015074340692779756,0.17366134164539443,-0.06755941053614894,-0.059352969930289386,-0.33193270982939005,-0.3099050747844126,0.11409251208388044,-0.0031822257461988487,0.010152039937412032,-0.10298555938851887,0.14168595167721842,0.10583049902811417,0.06805459470569604,-0.33249350509738385,-0.20253095099401852,-0.04814157034784553,-0.04824178854346486,-0.04179447924617738,-0.049882216976088065,0.2917017390443518],[-0.44239687380380843,-0.005197668529119981,-0.060391124556447275,0.1838707620679732,-0.05775665428396895,-0.10052595547903628,-0.05287241517309792,0.20773042677043047,0.08394567401336707,-0.47217384555896247,-0.10848165246900107,0.10204944118620222,-0.15074497409523763,-0.08299316863794381,0.04404571691115758,0.020202953584654924,-0.13818113910846977,-0.1763563901541305,0.24163399347893744,-0.21781185427131478,-0.12682010868672325,0.08896103563063534,0.12830701185896723,0.2605538049046117,-0.19567190927759534,-0.3189860599595622,0.27506384663710043,0.04082499210067742,0.2531220312605967,0.16986093044080297,0.12267844336677755,0.06714388988442664,-0.12576588679485448,-0.0034914612454556584],[-0.02128580635935825,0.022109785173233844,-0.20791165653701624,0.13310749552705936,-0.22410994673103327,0.18488034657733027,0.0636191314380889,-0.22758911613726954,0.481283916857329,-0.10639694358515615,0.07603982861119579,0.2066353413808687,-0.14558219110806447,0.21415161160932217,0.3464900936109071,-0.045948512512875204,-0.14835426073031385,0.21070967412162578,0.05382850365692338,-0.008445342950353981,-0.19190614283871643,0.1676341680761596,0.17057602855060477,0.18080567015445687,0.34994093980266644,0.044714027788301546,0.30733281560554954,-0.019649440891598487,0.01601016483918797,0.2903016167818623,-0.11845944668723707,0.025675186425970546,0.2961144947827671,-0.05764610864346813],[-0.2575178504748265,0.09887812439467332,-0.21719158472994332,-0.007475040859263838,-0.09142505746249614,0.12156131664999734,0.23188308817169334,0.2376580581087309,0.1865934806067155,-0.12688291621689635,-0.3126526067350879,-0.27301061498732054,-0.2588292678266853,-0.0049324769300056635,0.23534483302949397,0.08861261289861383,-0.18654741228182792,0.1029887573609812,-0.24859363306570442,0.05880113863690181,0.06065072439884958,-0.01768086073717626,-0.09762896619302384,-0.19436277710465108,-0.06580002434276018,-0.2265447732010044,0.010963631911520519,0.16243454898746312,0.120690354190186,-0.1564421493507585,0.21343292036558592,-0.02823598125195869,-0.032384078715434104,-0.17806057865658528],[-0.29775483188594476,0.03430283274100792,-0.14585806673731255,-0.07878516663292309,-0.0035901474985062533,-0.013182458540462018,-0.08243982886375287,-0.3279661373777531,-0.11962920278615966,0.1684709617536809,-0.048108232057152506,-0.11388600423125209,-0.03226702431379068,-0.12159311234480488,0.19195220756664153,-0.0018227035441238668,0.32575426137855223,0.5076971210621112,0.23346840403777483,-0.1347631906797304,0.17736625759052957,0.005416142434719327,-0.008102611049357628,0.007689762500073572,-0.24828746508239335,0.14488497391075056,0.24098794129274845,0.1745828009842732,-0.29465475484663245,-0.24721476532192854,0.011471799141510943,-0.11073960389292091,-0.04373912790848887,-0.06750698982777226],[0.22009771114854598,0.3925381987823584,0.081319389177576,-0.001406878880677698,-0.06305761868140518,0.205626022451145,0.3189047391409086,0.04298370892086741,0.15496387323092137,-0.19925162321440118,-0.04197479828810892,-0.07231143264123499,-0.13775740755337573,-0.2603942277474945,-0.029743084632746584,0.008907207770058555,0.04226856971130524,0.0064743202829669905,-0.17057433099648392,-0.18598982361814306,-0.257388032584485,-0.13536873322512805,0.0005765726947218547,0.02121471188876009,0.11081232754987554,0.20354351350580446,-0.11515019304840118,0.6025559571662233,0.03055941613060882,0.1292540593012732,-0.05820642769860438,0.023204981021570634,-0.31989168987568073,0.007994461146366507],[0.3546830419213174,-0.19365709243710838,-0.244219283526734,0.20573096866265791,0.1830498796874886,-0.014773218093496654,0.25636134950453365,-0.33394156526387514,0.4271520180317145,-0.2684799759537422,-0.4138438394611676,-0.02291713785614655,-0.06440068113503035,-0.2002316457915579,-0.3044091154116534,0.046997662849387556,-0.09884227935346102,-0.23366199344952013,-0.03457532963716217,0.036099698896782495,0.12147857062344507,0.23229389097408348,-0.13722409375121272,0.015496631792707261,0.1987768378567399,-0.05288975772472622,0.24543361243690226,-0.13137102365683279,-0.16283922348405913,0.37355341073555337,-0.08200925612858696,0.018658232681246167,0.04709873234946602,-0.08518851331709831],[0.13599110274846507,0.0008774679467895442,-0.09963459235015132,-0.24059587826907786,0.012696318633498299,0.0649382771197635,-0.19927696140546347,0.17086662308701517,0.012472596360357299,0.1457686570454699,0.009852575823499403,-0.19276540178103885,-0.2156203834269652,-0.22260815476822102,-0.23647969610835695,0.20067459554205114,-0.09646315752926424,-0.1432213278872485,-0.12493020003352324,0.1202789700769068,0.20495431847193185,-0.03683231384776767,-0.14255272726275534,-0.5574165462170321,-0.06263647779349829,0.12464788274763901,0.08550947483000301,-0.24696597851108149,0.1692398440869083,-0.13754326896023444,0.04436641888107017,-0.06487789843843904,0.2606527021475931,0.06418065833327136],[-0.1288920842353485,-0.0026159840041057618,-0.1947795132487714,0.19315648927102722,0.10341068124860611,0.1876841657069775,0.11588720425883484,-0.08967407527272447,-0.12806967778800257,0.07162525262832929,0.2916829147521845,0.25889571483580004,0.20711584412825593,-0.045259219273203886,-0.28666582941444413,-0.11338208823922649,-0.041848728458121646,0.28116767277497623,0.24748994548858527,-0.060909659884611896,-0.19789484634692336,0.431156875397322,0.2840130996999511,-0.07068845915337663,0.19249453380958398,-0.01125779310826689,0.1877309089467318,0.1023072774974671,-0.16219135535298781,-0.013176034341290352,-0.12178630918476288,-0.27687655303507874,0.23371590417503138,0.06677498614488096],[-0.23565544150894224,0.12176452344118154,0.029764212202547043,0.18046028575907366,0.10154366567710567,0.043916069433129326,-0.23320975063993207,-0.2857687523704531,0.0029888049093117893,0.3773856857309068,0.20989360502795906,0.16250683071198635,0.07307324694803315,-0.021296830222401107,0.28727870014007423,-0.03863016969260519,0.15593659884430508,-0.21193440289910223,0.1546718972417852,-0.05392727366459896,-0.1711785218070531,0.28317674503542684,-0.07333169401649182,0.3091635961557026,-0.46681487756296364,0.1415080416687292,-0.13024787714827799,-0.046071600353052605,0.024459426239284952,-0.026953711554860173,0.07974965242326708,-0.2189745615277957,0.09047942716562457,-0.19567077955290893],[0.42226264142476766,-0.0057969050871979205,-0.08304501940010184,0.15164690352696056,0.011331962224877862,-0.09100500676420539,-0.16166708945135974,-0.03205996301442735,-0.02654516029505491,-0.11764952936555745,0.05026093279575101,0.09092687490465945,0.03904602341185005,0.12267750858753507,-0.03935987955827301,0.04625420601280181,-0.10930392361030183,0.1840426743032869,0.10604377636893644,0.06844524460137055,-0.02512579826099922,-0.19769018597709398,-0.1315923150851115,0.14592484194872868,0.02652614621682642,0.03339276470570636,0.1411011999990415,-0.017984575652528798,-0.026377209674732456,-0.015935784790023833,0.29415646632878256,0.22671314472588888,0.2486448896434489,0.023544470454874587],[-0.3791226399051254,0.006974178638393044,0.10922300311093885,0.05756866503088263,0.36822422851120307,-0.2704864876178213,-0.039768127146969305,0.18595019043354102,-0.07695926542901418,0.27669931226620126,0.11922656719547427,-0.11740911493119272,0.18688801151294623,-0.10067469377755055,0.038027483011055976,-0.13162041892160525,-0.2532394218865781,0.003211754569782763,-0.3210509002026447,0.11880726149834384,-0.19880999377278613,-0.11466596829775362,0.23699158599695905,0.11933380097503826,-0.143266705853301,-0.06421045014591646,0.2909579329436664,-0.007930421910272009,-0.058466625303383944,-0.23198756317948624,0.17074624627982096,-0.09296726540302762,0.052018958303731946,-0.025862816937266053],[-0.08697498787707142,0.28872237104865256,-0.4015797063944801,0.17516237691520492,0.2587601838774969,0.018009278914412057,-0.027307886060457264,0.09030138234565195,0.030767193416133324,-0.09053539550176073,-0.3023561136288885,0.1352151603662468,0.17737205295544753,-0.143572852615299,0.2067459591779085,-0.355149771047353,0.13850070173736723,0.313977115276095,-0.08530394864753948,-0.12452035821237548,0.06373795238449581,-0.010581633048066384,-0.03747929720689066,-0.06974028363390214,0.09802481021908047,-0.01586302819773015,0.008502019067118286,0.18452071167458295,0.04096619601559195,-0.14451014496036318,-0.15374897748401214,0.27807695909551156,-0.0014239874025230716,-0.4226564328382772],[0.019146861448200173,0.1124689815717007,-0.15268775665310758,-0.07856208815309498,0.32733055295493035,0.3031014132024495,0.46744594060041017,-0.002682587262356278,0.23471206624637475,0.31259080954926144,-0.010641026826710918,0.11260490791203377,0.19625465501028114,0.11570039315198491,0.2480513339567241,0.25424177405803433,-0.13159281882401908,-0.21569865785495876,-0.09662312646114374,-0.08629721683596925,0.21903803934934377,0.015670743809909977,0.006447395875884745,-0.36270738239020295,-0.19738462658817796,0.2789446446763719,-0.03858754896490018,-0.12297870703726622,0.10160015066950025,-0.046759450501240224,0.17239257342593323,0.07187067869323348,0.07901797904880443,-0.08197241576030516],[-0.01994064914249591,-0.02233746174792463,-0.34869048286086607,0.05055060840380948,-0.14315866858329773,-0.38978161064322436,0.16540482578438068,0.04293965129016505,0.2516467387533925,0.1822013770292175,0.1111051362863021,-0.016571013153835884,-0.05562631013014355,0.19154251417607548,0.03884881939530461,0.027135588437500115,-0.04151718962379271,0.19027890416435866,-0.20366227563407144,0.32243467971384954,0.14730343087706596,-0.10180536087452466,0.2843935284199208,-0.4877478444672977,0.014596177764631733,-0.06502169022076518,0.05913304360720973,-0.12610963452352478,-0.08452885674352402,-0.1307230486691057,-0.25793654093445073,-0.18193340605942465,-0.2969514936525706,0.07399424399140524],[-0.05860443616748369,0.12010514654215722,0.1111830032122986,-0.24637978736989855,0.4100535104110153,-0.11173789501912905,-0.016248338192298283,0.03741562869316648,-0.42565787845980496,0.08278486452335396,-0.09255682623180454,-0.016098010404978776,-0.1766007753390665,0.1096826653552186,0.21194835789244798,0.08078362783702252,-0.16047936067550003,0.07153822582102722,-0.17547680549943862,0.1759729682167753,0.16064312019327515,0.2511913058964005,-0.10920702712379436,0.16580522875088535,0.03938320934686831,0.01275582570161172,0.09732636247455603,-0.2464266409569212,0.13030274461966232,0.2681265030803656,0.13685865283544968,-0.243021688770294,-0.057538907765423704,0.040648724989517195],[-0.04515347123191786,-0.1347149636703979,-0.009544332545787204,-0.044376040623262065,0.08829257572971505,-0.03120968819524068,0.02498162424028544,0.2624605997798767,0.01780124847565313,-0.18319270912525965,0.14629504076037425,0.09751540124684943,0.04260716029323717,-0.005276806559252287,0.1084645187122767,-0.025133233626423977,0.009285908497485658,-0.09624889972548024,-0.06491258335452242,0.10304732335465337,0.24132922835467918,0.010735939513625729,0.16259126636919427,0.06299431950954891,-0.1320096731069937,0.029445836718497535,-0.16992285849356698,-0.05096963218402385,0.331639634473713,0.050903353933337656,-0.008895317510718632,-0.08481806020670794,0.2673840444537645,-0.29747590980100397],[-0.20348278702040415,0.11448976836735264,-0.06224903707147324,0.15382610134309194,-0.07036562092428857,-0.21100693090841943,-0.6004714380024344,0.051925794043349,-0.10243668986842666,0.11671351999864922,0.1884731708169444,0.005734572489997399,0.14545283707201073,-0.06925667958206772,0.07975297354978111,-0.39563100030917103,-0.1767056396122079,-0.26406463925208956,-0.037631225500419564,-0.12409931167929358,0.08225459122113785,0.6630780497887376,-0.20334735485652808,0.07462861100910896,0.1251786384317145,-0.15770737019140957,0.05306356520451382,-0.2101359148171873,0.23493813660253926,0.16784891741263022,0.1145543129606629,0.24345582543036443,0.46984374956484565,0.13835899843377275],[0.20771319784959957,0.16460313895312392,0.2927881863995344,0.25848815448641316,-0.00015261746285017842,-0.032620060291995795,-0.12049253904360523,-0.3584195625422388,-0.012326354331471868,0.1777657432062794,-0.09576631493030131,-0.21689892200985275,-0.0655731922143899,0.09480907666374054,-0.13991509946302524,0.03692526903531908,0.1501400810581344,0.0775668693758582,0.002722082388917316,-0.10843068514393635,-0.09553621270035108,0.0996981602170121,-0.13588584972594497,0.14798860651286982,-0.15917107676524622,0.10777962642633059,0.05461145694497757,0.13140514127783315,0.3185249090528023,0.04812452217701016,-0.06175908160310005,-0.00800447762625034,-0.012956749244998369,0.11669067420079811],[-0.057563984806367055,0.2875777687184678,-0.1773471080413466,0.4400111651663577,0.049268328351428525,-0.1829867926012153,0.08032947586285755,0.05279815615632734,0.21187355123513618,-0.07305107083826526,0.050669434869633316,0.0186268667736036,0.29255650824467094,-0.08111422080009852,-0.012987701357117664,0.1785361428668083,-0.11363357612314622,0.06859518287108483,0.2739669068298059,-0.25536751702770316,-0.10137798374123108,0.0015322206295449968,-0.031175753843449658,0.1506582627130734,0.1539898095952265,0.10556204985956254,0.031168610918370622,0.13056006289159588,-0.0936022245880233,-0.2082379243001978,0.43322819602738355,0.12142701924874748,0.031719658956520805,0.14439748882093834]],"b1":[-0.05435921890669053,0.022374898103573532,-0.017049051424968088,0.005002030076114848,0.04670255288242925,-0.013726120900233167,0.01373397454972065,-0.017321562059442262,0.01567434304025335,0.029854101879130235,0.036738923746073224,0.04233026010314559,0.011268263773869906,-0.011463556646621107,0.011414822735095823,-0.013765614788933248,-0.021960767620690262,-0.004361680675053868,0.004354940714410184,0.011600767889592876,0.010590708182885064,0.014585555772515446,0.008886191161491497,0.06858676931892518],"Wp":[[-0.34515514127666064,0.12004306933799486,0.22828846717572285,-0.4211493956356785,0.06153054154497331,0.10958971081315745,0.08458980598841791,0.057487875355255895,-0.3427135541089795,-0.11644815759503832,0.02320170721214852,0.3215488449938631,-0.10823120823125176,0.1982483943807787,-0.07561093980662317,-0.1654360166683584,-0.2793155074892507,-0.211826035176198,-0.05466648408573876,-0.2503370435226185,0.0687241889774246,-0.38359225222710996,0.27728403667282314,-0.3771460688358737],[0.13696136182598345,-0.21732696479499847,0.5733876640114763,0.004884883544631779,0.19676030840852587,-0.18081857502965437,0.20119210103019913,0.012825076740461724,0.1707145365170454,-0.49514339041851285,-0.36806254933171006,0.048149031139926406,0.09901396317891037,-0.05528320563019468,-0.21102085886275646,0.1833664604042101,-0.3788816664194185,-0.08631949934269958,0.2739091567645851,0.21824234239434034,0.08380897180821767,-0.0895758845216377,-0.03800366648251279,-0.14966364382758407],[-0.07532826374408073,0.02755093006302555,-0.06778033467203418,-0.20967177081941782,0.015436197657157159,-0.2982425491539849,-0.001582797387518501,0.20383834227256795,-0.022244436658291733,0.012647093533197398,-0.09819681170975098,-0.025709755120663823,0.16866989884546182,0.06562668951748023,0.2593321695199719,-0.33165529562668744,-0.24715552251466905,-0.0955197577338669,-0.08952769163708726,-0.10110882586407377,0.024121093493347904,-0.21713676058522136,-0.17860146696878873,0.2193560399909874],[-0.29497674488371567,-0.005044900510576425,-0.0400961131599772,0.02625886264072954,0.015541955059191101,0.02293436556985246,-0.24224803358582486,-0.043430674262879485,-0.015521290132193923,-0.07355115349381557,-0.0008950945331521356,0.11013468074374022,-0.0010047522676815438,-0.17467629935833237,-0.20506980866446714,-0.1536542312442988,0.14130937232763255,0.4620535496776559,0.030857773729818103,-0.31648941406095976,-0.0680404534874505,0.061247091174007284,0.062487311287111214,-0.018588946944845135],[0.2536241961632851,0.031937212238291525,-0.28501326285521106,-0.037116687329623345,-0.14489990464567315,-0.007971177491341888,0.06314387461801448,-0.1959463178635936,-0.20027593377748057,0.059851401300945774,0.045475346115394055,0.21589680336319259,-0.10406959091169725,-0.24332632792788308,-0.2965367904747984,0.31023249532232916,-0.11011456129616902,-0.13017157610711583,-0.22220628772466897,0.6292309698561295,-0.1095397864696194,0.17085201776301578,0.24902989103296014,0.09364549301965025],[-0.2625955422780616,-0.02872048026350147,-0.17169139650216428,0.11947911829158604,0.34984374844503513,0.14293240085808767,0.036698558820263606,-0.27266710589223153,-0.13806556811758938,-0.03594788553629748,-0.054265258169014244,0.029086549500160215,0.4845368151072931,-0.24837046022065296,-0.057152054384907086,0.15797206686577708,0.09151625960072286,0.09064387579926815,0.3340340517917452,-0.08502459268344084,-0.19724120696958786,0.16145343523011074,-0.0812095864623001,0.4294254276996773],[-0.2221908902250813,0.11965796808195761,0.20182021828291338,-0.4092286529484734,-0.1394952895670575,0.004554945004629111,-0.30398569603481707,0.16109742747593395,0.12169971373526478,-0.21128715887331237,-0.37000442289372626,-0.20047881053652972,-0.21390362727438794,0.13488978967729714,-0.2368763323572101,-0.346023865566069,-0.01559093608467793,-0.3234322721392471,-0.009687770813933362,-0.15954392360204778,-0.0949932777865595,-0.3838707078304946,-0.27234474718294144,-0.1702789849902777],[0.06609336192540315,0.10592189685143247,0.3745290693890423,-0.3688915932808059,-0.1763457815352927,-0.24151983456953766,0.02692189082643082,0.005336435760930474,-0.2014482594855883,-0.07724282490017116,0.016944043057880134,0.17731789831649494,-0.07654455782666994,0.11627585938395768,0.036444366969490646,-0.001883229715711014,-0.21691395586911005,-0.20181335510765755,0.14573552086297376,0.13352818098334135,0.003981449417683847,-0.047959032220706035,0.166111781951926,0.32666885315919836]],"bp":[0.0007946521626192193,0.000858974618141798,-0.001804473713939552,0.0008446732542344696,-0.0013378302796514202,0.0009515455394004267,0.00026365687018452017,-0.0005711984509894614],"Wv":[-0.44354813343530597,0.18617531368534054,-0.18308680245445966,0.036983152067962766,0.38773614977046617,-0.11226504167994496,0.1048269087147861,-0.15499959984682646,0.14812542055082276,0.29305017636833364,0.3271639137519438,0.3595158932437667,0.09519870303349362,-0.0942116086727544,0.08817983517514981,-0.14038012009326115,-0.2362796530515593,-0.019751568692450476,0.011927033969825598,0.13696847696623282,0.1051057536156494,0.13513330612658705,0.12836116315872043,0.5183059321624836],"bv":0.1273241548451527}