{"HID":20,"OBS":34,"ACT":8,"net":{"W1":[[-0.02754916556780399,0.03773230943118655,-0.1896996092435668,-0.37075690301315284,0.04698589334580285,0.24030696851689626,0.2632798283271351,0.08854603542813853,-0.21973828557496092,0.2895425892021769,-0.06813073655510468,-0.24175862022285172,0.01484860367627333,0.1452947204658669,0.23904939550868892,-0.11218999129490682,0.03312247401747893,0.03565021552006474,-0.13387560632722098,-0.04486397205288871,0.005637822808435036,0.05477139619669426,-0.4833915827892696,0.30454697119744406,0.17483111151787684,-0.11003934477659749,0.0013261841401328567,0.05147868095572752,0.30450145702939024,0.07683199025815926,-0.318021481195459,-0.09288512354878924,-0.14738494471763094,-0.2768919296873158],[0.07288544777551477,-0.18866355208931096,0.11371740573852189,-0.1712530214171275,-0.12735289909045194,0.2709968855001538,-0.280808878556286,-0.05935150124237533,0.60563876761315,0.08151744799578786,-0.2155631075225834,0.10147919604443423,0.3655712715515736,0.2272818609801827,-0.14000822172545496,0.0036284636854518756,-0.20848502703534164,-0.008409506297293033,0.1164283489377051,-0.0726345415274785,0.23189925655313476,0.17929358369079337,-0.021441693950046675,0.1987166413183649,0.1726608930699337,0.41257212194394133,-0.038962875988848907,-0.13381905285535498,-0.07515575680129402,-0.04653271429036825,0.2300841596510895,-0.256317778361999,-0.27994661154427675,0.009219334629282077],[-0.24001693447284975,0.4206694488764271,0.10430323629735518,0.3764102848661265,0.08056306130830536,0.4452094780997727,-0.1841995483115547,-0.2593930640521549,-0.21298695362936557,0.03987521609448898,-0.2186462388804985,0.004848023638120095,0.03704541449810226,-0.2641492116102956,-0.2039649372295026,-0.030274202931478804,-0.022449212530909323,-0.18147576525241252,-0.4578817924235497,0.11361340111750551,-0.02363950228098819,-0.2933199326894077,0.11244463037169873,0.0856999651472914,-0.05944737522050079,-0.002661985513570555,0.19111041770490297,0.0737933399001659,-0.04188272944007375,0.10463789004190063,-0.13463267104394133,-0.03962421991100531,-0.3405401565933063,0.08962374042941185],[-0.02263619980903838,0.04303849864020504,-0.11476129744900476,0.20109057954207757,0.02692212526415225,0.04148263151697802,-0.13342786836471573,0.11054143191392349,0.017506014640324724,0.038608659880840224,-0.193246343725333,-0.0672463985003481,0.28992082869045754,0.17107308906119578,0.08439620920341319,0.2062039847468366,0.06119401820770212,-0.2227388314680767,-0.036082371776112655,-0.08738121876586463,-0.36302685581428096,0.17408497352634208,-0.25641813518677564,-0.015438927068582022,-0.04633280413739136,-0.13105724639370409,-0.08986473909481497,0.1326324838498951,-0.12411140920058482,-0.05450755998581714,0.11163221427964846,-0.2891435220675499,-0.08166925439891706,0.3184936543236803],[0.11478471646340617,0.015667314286704214,0.023111613683198078,-0.12472241550736958,0.09549458929795258,-0.11145046167024196,0.032126684073475686,0.37938140370636103,0.1579268429309207,-0.04194196828139163,-0.10518006602873446,0.01667266899661205,0.38399372954291594,-0.21461473705951206,0.23666446653446363,0.07723707765136203,-0.07278120165222524,0.0909646877548069,0.2490697055292561,0.053336109601148256,0.021125846849907422,-0.13114334631167704,0.03305453788587586,0.10341180000619614,-0.09723897249723237,0.03293520287917677,-0.01435538835005076,0.18244365550006209,-0.061814427279990626,0.040902586224941716,-0.06234461515720903,-0.017248139902760792,0.11960912344090306,-0.023340553785942842],[0.12550096607137234,-0.49733121904874744,-0.057178314048538216,-0.12903206833276012,0.1278609475062078,-0.2564527629999799,-0.024889684848036206,0.13360103138826937,0.15587277451156095,-0.014192192074568153,-0.259799801338594,-0.03323555504838177,-0.06013862816706894,0.4201639811096389,0.02040932058490372,-0.1241267859625542,-0.03776231796778512,-0.27630756383966715,-0.3946685704080186,-0.05420454206840745,-0.15375324276054766,0.4253840576632591,0.02179190946226389,-0.08712392358977021,-0.12459274811617384,0.07057433056679505,-0.06257955620353267,0.1597714082143395,-0.021546618575848137,0.2668199120771098,-0.004577575815848479,0.26254446302467704,-0.009080226396879327,-0.1247273931031708],[-0.021318473091177396,0.032026519865399235,0.12782347618838244,0.12554423488118208,-0.051654433415858375,0.10695263769052814,0.09412117420903661,0.3116790368765001,-0.0923243838490963,-0.13071841973993797,0.05536435364791212,-0.061566755385478525,0.01112107797785618,-0.1634156783398788,-0.24505295570850186,0.32015279503510097,0.03528574042533124,0.06914572883568018,-0.22720674731058124,0.1215173100149842,-0.10100033878243476,0.14815310521949795,0.032778660114354985,-0.004889636795932636,0.09744118790515767,0.1889667458046632,-0.11686005314401678,-0.06499868426745394,-0.24166793777385756,0.060566473552328914,0.18320468239623455,0.1584901199311052,0.2874888048177395,0.09760042270037861],[0.25823569227629006,0.020729463214227712,-0.07874177897568496,-0.3244221296118817,0.2805711311945994,-0.0020124951632117475,0.0680795102311802,-0.046735005026017094,-0.0795105599343463,0.13877619319618095,-0.07632667363343557,0.09620756870372564,0.05945015424628564,0.05854586915179224,-0.05911313708502956,0.025150696265351078,0.140233136619438,0.0572106347893441,-0.3426656564749502,-0.014940023465627492,-0.08352383748308616,0.09981232609445365,0.13100336652069425,-0.1455029108734363,-0.04248799515487696,-0.08054451118895573,0.04644389178192384,-0.08936084956428803,-0.20614138497950849,0.026997757124121058,-0.07446088144183845,-0.1976894342366156,0.06919251093775933,0.10298221912636987],[-0.060619947708008895,0.0436434239491568,-0.10528525073802761,0.019969324631688247,-0.04488506289499038,0.012540273449230834,-0.23333705974577515,-0.049246218320538784,0.24817904837573387,-0.01930381955404055,0.055350155664823764,0.11575719768536258,0.18985787183373076,-0.1869697461346949,0.2742445641852774,0.14268974039075044,0.10035241167508811,-0.4517673647693763,0.38842011585479674,0.23268028979792135,-0.03190919906877556,0.15292533042559348,0.039662359936496,-0.11200253617971313,-0.15767492793375826,0.08914272126949535,0.015867644945235505,-0.03885318936041693,-0.006865073346921714,-0.055015133132212006,0.14014084054825296,0.18203997818120726,0.16273696288099088,-0.04674743420623146],[0.07350885299383608,-0.04814376851979601,0.08623331673025932,-0.2543104434246009,-0.03326321141816479,0.04903087724183096,-0.12101674707717264,0.11221430416526736,0.10300815846614847,-0.04600281062928409,-0.07760823196501912,0.21926434518968532,0.21031905523834882,0.04608263606039941,-0.14885915222881907,-0.06960253436539336,0.1285457064273271,0.21869348074285416,0.27713769815786204,-0.02836453436748496,-0.3592793002820302,0.16789218139222517,-0.04232612401837057,-0.031012330797769883,0.045769470744996474,0.01959064651880833,-0.14428751424136063,0.34788531295539216,-0.0895805492121707,-0.021564459512388685,-0.13891893468036356,-0.019276090289950323,-0.18259909778140587,0.05177450616453844],[0.16878767496320196,-0.10492840030481326,0.22310648125373386,0.10443747039331637,0.20795258881009407,-0.21144254891200584,-0.08349819077587012,0.16291701647470574,0.17515268224313502,-0.04641495515310107,0.3657950236100892,-0.12760538004470773,-0.06889604950458243,0.07028559244860193,0.2183178797411811,0.4132064514876982,0.05907026790830244,-0.06618008979950593,-0.022907493773948604,-0.06380528373410482,0.11995094429762389,-0.09976436379230227,0.1561986575881989,0.1181666520035898,0.13737760313897276,-0.059061620497475854,-0.034770370505035786,0.05554123895764551,-0.11543802640673007,-0.14445946911711427,0.1181925083992635,-0.3644179319918669,-0.4096182018280593,-0.08492369215639382],[-0.31243989875559547,0.007651719511848248,-0.10938464287019636,-0.5606591118717885,-0.1850509873840806,-0.09465795352868925,0.06564091850899567,0.05901402508139096,-0.1990078812014536,0.30186457346738826,-0.27908860934533325,0.1510834701008212,0.04139455890396496,-0.10323553928592756,0.21913381490849473,-0.018032310071053916,0.017450796889256864,0.2190821910751091,-0.1443730563287859,0.2683753642135893,0.16719990698902357,0.06854304616201992,-0.025254678333191144,0.06129675603250266,-0.26823403051308575,-0.16320714980131068,0.1407143886059295,-0.06373323733815667,0.03581819061030372,-0.03198409433439982,0.1867719222863219,0.046889141785042825,0.2791128562597359,0.04675416423405297],[-0.18995918945842133,-0.04351948872601284,-0.26371650173838324,0.17785565935145337,0.2184355178033753,-0.24963687256310588,-0.3472188256441392,0.030529119359190247,-0.0598271503320691,0.26641666429563937,-0.3077394909682429,-0.0031170873868154505,-0.2966181865792964,-0.05361621316900947,-0.2784424932889021,-0.32683159316442645,-0.06271153981277024,-0.037718264261012664,0.22103694883191785,-0.029679991831596062,0.22406907626899322,0.1195553918577329,-0.05164618176851623,0.06242072305116555,0.2388632870043533,-0.10447815207691777,-0.08945024828780901,0.027452031809996568,-0.03492012626016226,-0.028505728532589876,0.26396286205694636,-0.1649007670545038,0.1430310721361513,-0.11664228661806185],[-0.20919566436465883,0.3590080557529461,-0.07129335977051865,-0.3583201735774986,0.09297950608379554,-0.04260514717779665,-0.0938991935325482,-0.08338698208014833,-0.08003931468145155,-0.14827165525933178,0.05283247783957325,-0.22255319687259728,-0.1035562210403846,-0.18651482419912102,0.08902715544498598,-0.05984716723899988,0.03273914219693328,0.06086436386612271,0.11105979981095591,0.03501183412179835,0.15908630009428118,0.2672206193889939,0.0893238025511746,-0.03788312850389605,-0.3173658048004958,-0.11261402075967587,-0.18316896534578983,0.18711843011428117,-0.31864851596971616,0.05479056037537114,-0.13709065380291846,0.10553166627155874,0.2206567387232539,-0.047950821213402814],[0.003417914246341026,0.30019235543396855,-0.25562639022330114,-0.25592893802222316,-0.2967639406766949,0.10922428877894513,0.025093022962663802,-0.3016370611314946,0.14158544280293542,-0.15802217682688433,0.15037841390396087,-0.07293609067165238,-0.14170248870845778,-0.18884078791981168,-0.0020419402176413727,0.002313001718920917,0.03797855147702967,0.15104947661171367,-0.4545667684422208,-0.07851295758863817,0.15727324090656325,0.0015939042167846822,-0.21425087813989174,-0.005349713572629548,0.23513753138430407,0.1017613305449216,0.21719129564688888,0.2349634190585734,0.002483249385134339,-0.08326018376252772,0.16079114383758855,0.0755071012963991,-0.05776404215357348,0.28543723888873346],[-0.12536938142454981,-0.0738976052275565,0.5204732052173794,0.21271198014174247,0.1552421630170796,0.17727075023612043,0.2547435139764959,0.025318883240437583,-0.1312192303180886,0.08188861929047149,-0.0242675089469781,-0.07455921920593749,-0.14117799918964785,0.03696395634332266,0.08254016474030616,0.19671716693897143,-0.11942474350324359,-0.19607846211510077,-0.03780915667521246,0.04174392722447229,0.12905461523284759,0.3610751564283377,0.10646166023428627,0.03989081966612177,-0.05442326033016264,0.008759747092713228,-0.05908212264730172,-0.03685985025928129,-0.03414019245752383,-0.13308269563656708,0.09835313527354055,0.15491175413459082,0.18680323867786527,0.061065574993872114],[-0.058502758763325224,0.06553048690412733,-0.057975723433054016,0.04060000310406968,-0.13785447890507826,-0.03237194331611698,0.13128184522481726,0.0689305501043707,-0.026847481736757918,-0.12376962425766382,0.10609087499294398,-0.08013623877971024,-0.05216700901909629,-0.08121049828818491,-0.3311286607319204,-0.10454365525223419,0.09936293464458965,0.1144426329435059,-0.13558584947635388,-0.0012807299138104767,0.13258533026142771,0.008265569340475747,-0.20838750989516375,-0.007643731936283397,0.00779238024075944,0.12187509968283088,0.09986031672519767,-0.028709335720659045,-0.24444604300071723,0.5134116762881457,0.19717984735885985,-0.37069924917107655,0.28022925891089184,0.20325499068777744],[-0.010979510473206784,-0.05373292600525744,0.15739782804271873,-0.07545471693088639,-0.07593589935260887,0.23410514250892223,-0.16036708761735394,0.16955054816926318,-0.1890042507032575,-0.08871237426461094,-0.15686159576193176,0.00045753246205575024,-0.014642565932537786,0.0847201386695659,-0.08476863364628384,-0.0062899001502019275,-0.37834306218003216,0.23328963145036885,-0.14030827894112863,0.04825323192304387,-0.05538617245318227,0.4050005266373616,0.01566018810783207,0.3003137979277195,0.11803120926721698,-0.3729204701507784,0.044129613839864676,0.3497619384691664,-0.07343828310757873,-0.0721795215547651,-0.08992987969805871,0.05485359739553915,-0.0014704315478498956,0.25685549896303417],[0.20529294542096124,-0.1798046322792608,0.20897447143850376,-0.06151101021469186,-0.05435985063532389,-0.11894982753582498,-0.09202125241424085,0.013726257036376267,-0.047503162262347604,-0.08913731615113515,0.04595052618203862,-0.041836227906639246,0.07960354998255584,-0.022095411858015467,0.01096768688617585,0.33098871479378744,-0.300376152789551,0.20198668154641722,0.384072923996337,0.10644341516764035,0.07491408748165286,-0.011409795404795151,-0.1467681383157746,-0.28686702834835776,-0.060140145220519636,-0.18831762244603834,-0.00117211718957633,0.052794316189958716,0.024976368010453616,0.004594488579997556,-0.03786901304405883,-0.1934681777465352,-0.062655798401074,-0.2067202336188763],[0.02995850395363276,-0.3340016610086925,-0.148479982480274,-0.13025630545115277,0.1328487703308064,-0.08388095188093797,0.10815055633598004,0.13452670256583568,-0.07882679771238997,-0.1023766537001727,-0.1807090037840545,-0.19922140209070047,-0.2029798485838685,0.13008426305738213,-0.06731480070071337,-0.1696139549406624,-0.17642190666832885,-0.06711710362917447,0.13904168348403748,0.010275115909557693,-0.18699621256929494,0.09933697478301289,-0.08841298927812133,0.26792980880476247,0.19325451154097317,-0.24421068496356446,0.08086934114649129,0.20895993146189792,0.1434557590732489,-0.2556564377731729,-0.03169576608798935,-0.1808646448908886,0.08551094043904477,0.24503367382062088]],"b1":[0.0007881924487583288,-0.0005289422684718239,-0.000935312778393431,0.0014060006344346263,-0.0012636348427846815,-0.0011109281371176787,-0.000601017595136679,0.0014386084692827594,-0.0008126596917477915,0.0009863507285901166,0.0009262847860283281,0.0016547150110777246,0.000012230122376102578,-0.000166034252416312,-0.0010529634122730183,0.002417994684836976,-0.0013569212161927096,-0.0009416099256961414,-0.0010667127343986645,-0.0007879359194162959],"W2":[[-0.31029647455961834,-0.2646643084893844,-0.06803853232231433,-0.045155554217458586,-0.318261095397547,-0.33979190077330773,-0.018544728305883856,-0.12598955385132765,0.11438316998276023,-0.2831718000203404,-0.10260765309386873,-0.09633196300545464,-0.23257260180249745,-0.2302855661732436,-0.30607287937878214,-0.13244711012699822,-0.021306118831245138,0.0728644553425768,0.09632229433671409,0.025147152782783625],[0.10415404986904699,0.25866792479391404,0.07143643585599722,-0.3730723784460101,0.16422905599493098,0.14921686997852363,0.25177642578786164,-0.09210362306740184,0.3368597724556359,-0.18847608967536925,0.29970201383163003,-0.07865678884299279,-0.45534865154015264,0.14865253478471027,0.0004953666833656332,-0.15670245353044635,0.1695062594766136,0.2542754182952494,0.21654029787241044,0.2773842440552309],[-0.021215814381238117,-0.18075276950593475,-0.19923995800471297,-0.21806513869657412,0.014025583739398379,-0.28056225843240784,-0.05120341567373012,0.17942879323397062,-0.17768005109046506,-0.4852805503539535,0.06639796245242208,0.02738481270895242,-0.21120602529287077,-0.21792001585405124,0.27243450984953527,0.08462863902775566,-0.11601485937348444,-0.2181760419607718,0.17834074323703508,0.1961676953844742],[0.045728745639088304,-0.30969072404260406,0.30736172623360963,-0.29015398968032674,-0.11216211897173531,-0.0515741786658774,0.15523532306493465,-0.549910366812752,-0.04561783890243423,-0.20090603285029596,0.1632931279615333,-0.10123854083049512,0.17078167984883477,-0.012980602253346216,0.3481357017837659,0.12052163325433055,0.1658355237884674,0.14482374975255066,0.129385680984703,0.1430435732548132],[-0.002624937634213578,-0.4506740281719285,0.09676073517300976,0.4277255588275342,-0.007382810996853126,-0.40063416370140337,0.01891191991116365,-0.13631105343597544,-0.3622094636330817,0.21958376894972143,0.0412083384149489,-0.04622912635802386,-0.2373366894850195,-0.12174747560737058,-0.16753237717692382,-0.35620786356516243,0.17138776727106905,0.15387588161458968,0.0071184675242071584,-0.26315708999254195],[0.13931487571450477,-0.04105563477214787,-0.1768439492765012,-0.003001695507590569,-0.20271475954772644,-0.3262194063315452,0.06362092135968925,0.1229421880479572,-0.09983966415650965,0.04075450736454235,0.4080548546320158,0.3461584514200491,-0.35143313678607047,-0.0016759336396624397,-0.23088725038732238,0.2922608507947087,-0.29962842895480385,-0.07397350186862414,-0.411847450638895,0.12594792933196933],[-0.41290467904129396,0.06920425523786042,-0.10668219608283916,-0.15660173546555933,0.2536600826155338,-0.23373682007217042,0.06260513349789476,-0.07631357362076552,-0.19302511183629625,0.008901957952316982,-0.08572075230486521,-0.1598705864638414,-0.1080234584635211,-0.14728681383860923,-0.1265952097423603,-0.5580286279227201,-0.01956543873995286,-0.13147139531789767,-0.25007275404640866,-0.10222833775930569],[-0.4119766177742919,0.24241682103035395,0.07040422732612046,0.008608994144805497,-0.1602938850833703,0.08229923288281286,0.04964522992008994,-0.0718831838819235,0.27613545919695176,0.3196138624392519,0.04111032729525465,-0.1389026339387956,0.12319835529350723,-0.03729192453046922,-0.40278757807370213,0.11202643176258867,-0.02227361134126544,-0.12031775101326475,0.23397335075561335,-0.5166613310524499]],"b2":[-0.000699142651105346,-0.002526557926302456,0.0008374212849166542,-0.001078192746991707,0.0004508001725047868,0.0039639438700528945,-0.002110269542465458,0.0011619975393906288]},"avg":128.0583333333333}